{
  "model_type": "sine_1d_mlp",
  "config_path": "C:\\Users\\giova\\OneDrive\\Desktop\\KAN - ACA\\KAN-ACA-Project\\src\\kan_models\\models\\sine_1d_mlp\\params.toml",
  "function": "sin(2*pi*x) + 0.35*sin(10*pi*x)",
  "function_terms": [
    {
      "amplitude": 1.0,
      "frequency": 1.0
    },
    {
      "amplitude": 0.35,
      "frequency": 5.0
    }
  ],
  "input_dim": 1,
  "output_dim": 1,
  "architecture": [
    1,
    24,
    24,
    1
  ],
  "hidden_layers": [
    24,
    24
  ],
  "activation": "tanh",
  "activation_applied_after": "all hidden linear layers",
  "output_activation": "linear",
  "x_min": 0.0,
  "x_max": 1.0,
  "data_config": {
    "seed": 7,
    "train_samples": 1024,
    "validation_samples": 256,
    "test_samples": 256
  },
  "training_config": {
    "steps": 4000,
    "learning_rate": 0.003,
    "min_learning_rate": 1e-05,
    "weight_decay": 1e-06,
    "early_stopping_patience": 500,
    "early_stopping_min_delta": 1e-07
  },
  "layers": [
    {
      "name": "linear_0",
      "in_features": 1,
      "out_features": 24,
      "weight_layout": "out_features x in_features",
      "weights": [
        [
          0.18737424910068512
        ],
        [
          -1.0768929719924927
        ],
        [
          1.0428069829940796
        ],
        [
          -0.7884065508842468
        ],
        [
          -0.7636330127716064
        ],
        [
          0.9499533772468567
        ],
        [
          0.5381017327308655
        ],
        [
          1.0240408182144165
        ],
        [
          1.4403866529464722
        ],
        [
          -0.5079794526100159
        ],
        [
          1.0316663980484009
        ],
        [
          -0.77922123670578
        ],
        [
          1.6097526550292969
        ],
        [
          0.5361114740371704
        ],
        [
          -0.39972564578056335
        ],
        [
          -0.7581630945205688
        ],
        [
          -0.8570853471755981
        ],
        [
          0.9431884288787842
        ],
        [
          1.9980686902999878
        ],
        [
          1.3164983987808228
        ],
        [
          2.9457201957702637
        ],
        [
          1.2440779209136963
        ],
        [
          0.8270677328109741
        ],
        [
          1.2952040433883667
        ]
      ],
      "bias": [
        -0.3891417384147644,
        1.0217862129211426,
        -0.5928764343261719,
        0.19209884107112885,
        0.17546194791793823,
        -0.30579978227615356,
        0.15028229355812073,
        -0.28600528836250305,
        -0.09846366941928864,
        0.333234965801239,
        -0.8076833486557007,
        0.07523361593484879,
        -1.6131256818771362,
        -0.16722124814987183,
        0.28029677271842957,
        0.16379687190055847,
        0.13212157785892487,
        -0.15857088565826416,
        -0.17166408896446228,
        -0.9970946907997131,
        -0.01201002299785614,
        -1.0161714553833008,
        -0.1946193277835846,
        -1.1730129718780518
      ]
    },
    {
      "name": "linear_1",
      "in_features": 24,
      "out_features": 24,
      "weight_layout": "out_features x in_features",
      "weights": [
        [
          -0.22032326459884644,
          0.4668620824813843,
          0.014844926074147224,
          0.11913852393627167,
          0.009765641763806343,
          -0.24441027641296387,
          -0.2085261344909668,
          -0.24217107892036438,
          0.049931153655052185,
          0.43062007427215576,
          -0.4005213677883148,
          -0.26647230982780457,
          -1.1108596324920654,
          0.08850604295730591,
          0.2756965160369873,
          -0.15669609606266022,
          -0.12739159166812897,
          0.24214871227741241,
          -0.31326937675476074,
          0.03517425060272217,
          0.060777630656957626,
          -0.40860307216644287,
          0.2897152602672577,
          -0.48987096548080444
        ],
        [
          0.399167001247406,
          -0.2479182630777359,
          0.5868504643440247,
          -0.062386300414800644,
          -0.10270113497972488,
          0.5296612977981567,
          0.2019803524017334,
          -0.09801425039768219,
          0.03330561891198158,
          -0.1853729784488678,
          0.711168110370636,
          -0.3199478089809418,
          1.0040785074234009,
          0.32453981041908264,
          -0.20092742145061493,
          -0.462630957365036,
          0.17582109570503235,
          0.06482246518135071,
          0.43829408288002014,
          0.19428007304668427,
          0.2931106388568878,
          0.6404380202293396,
          0.31005561351776123,
          0.23558825254440308
        ],
        [
          -0.3295601010322571,
          0.23618455231189728,
          -0.23452849686145782,
          0.8950466513633728,
          1.4059654474258423,
          -1.2271122932434082,
          -1.1445211172103882,
          -1.448746919631958,
          -1.5859993696212769,
          0.521111786365509,
          -0.41579678654670715,
          1.1871639490127563,
          -1.0320332050323486,
          -0.9523205757141113,
          0.004835688509047031,
          1.560347318649292,
          0.5614666938781738,
          -1.3984590768814087,
          -1.0862804651260376,
          -1.3126158714294434,
          -2.0683534145355225,
          -1.5445266962051392,
          -1.4942843914031982,
          -0.9092317819595337
        ],
        [
          0.014741215854883194,
          -0.6393782496452332,
          0.3216070830821991,
          -0.3093186914920807,
          0.3174431622028351,
          -0.07048815488815308,
          0.13894037902355194,
          -0.04824322834610939,
          0.173927441239357,
          -0.3205457627773285,
          0.26674744486808777,
          -0.16734135150909424,
          1.1756802797317505,
          -0.29332756996154785,
          0.04917220026254654,
          -0.01873181201517582,
          -0.22672536969184875,
          -0.09770043939352036,
          -0.1255064606666565,
          0.10517151653766632,
          -0.33796611428260803,
          0.1984207034111023,
          0.06784063577651978,
          0.5009893774986267
        ],
        [
          -0.8055374026298523,
          2.3877408504486084,
          -1.5269593000411987,
          0.8704676628112793,
          0.44851747155189514,
          -0.7168558835983276,
          0.4456583261489868,
          -0.3674975037574768,
          0.3135843276977539,
          0.5464199781417847,
          -1.7130181789398193,
          -0.11058592051267624,
          -2.756936550140381,
          -0.5410220623016357,
          0.7113672494888306,
          0.03351447731256485,
          0.5385762453079224,
          -0.16662852466106415,
          -0.23865847289562225,
          -1.0656602382659912,
          0.9034267663955688,
          -1.3978636264801025,
          -0.7267531752586365,
          -1.5553697347640991
        ],
        [
          -0.114205002784729,
          0.5879138708114624,
          -0.42915812134742737,
          0.7510229349136353,
          0.6483619809150696,
          -0.5732945203781128,
          0.09516152739524841,
          -0.5919890999794006,
          -0.46066388487815857,
          0.5649582147598267,
          -0.8907126784324646,
          0.8041473627090454,
          -0.9681239724159241,
          -0.6059480905532837,
          0.6874898672103882,
          0.6837307810783386,
          0.14318422973155975,
          -0.3169638514518738,
          -0.5446590185165405,
          -0.92261803150177,
          -0.6394583582878113,
          -0.658418595790863,
          -0.8228150010108948,
          -0.6813704967498779
        ],
        [
          -0.0002259071625303477,
          0.5806291103363037,
          0.14298586547374725,
          -0.0879971981048584,
          0.22838036715984344,
          -0.003871602937579155,
          -0.015912849456071854,
          -0.3331453800201416,
          0.08778387308120728,
          0.410892516374588,
          -0.5283734202384949,
          0.022889111191034317,
          -0.47123008966445923,
          -0.05985028296709061,
          0.35896065831184387,
          0.004233995918184519,
          -0.16031856834888458,
          -0.3459755480289459,
          -0.262126088142395,
          -0.24888569116592407,
          0.2438780963420868,
          -0.19801823794841766,
          -0.04273807629942894,
          0.04321065917611122
        ],
        [
          1.0361230373382568,
          -0.5980511903762817,
          -1.9449281692504883,
          1.7249022722244263,
          0.8949907422065735,
          -1.1201343536376953,
          -1.2176152467727661,
          -1.3669592142105103,
          -1.9058929681777954,
          0.895085871219635,
          -0.7430838346481323,
          1.5311596393585205,
          -0.29309386014938354,
          -1.2240506410598755,
          0.05390851944684982,
          1.0290465354919434,
          0.9800035953521729,
          -1.53343665599823,
          -1.810869574546814,
          -0.8986481428146362,
          -2.5367636680603027,
          -0.9321189522743225,
          -1.554376482963562,
          -0.09941410273313522
        ],
        [
          0.11822599917650223,
          -0.38361865282058716,
          0.10320548713207245,
          -0.17476528882980347,
          -0.4503819942474365,
          0.4559093117713928,
          -0.231521338224411,
          0.2113497257232666,
          0.2974758446216583,
          -0.0897291973233223,
          0.13059188425540924,
          0.2227247953414917,
          0.6352669596672058,
          0.03412504866719246,
          -0.22260421514511108,
          -0.3046547770500183,
          0.1749860793352127,
          -0.08421660959720612,
          0.24492090940475464,
          0.29105085134506226,
          0.3602994680404663,
          0.18831607699394226,
          0.29059886932373047,
          0.02559501677751541
        ],
        [
          -0.05739233270287514,
          -0.06590302288532257,
          -0.3537026643753052,
          -0.22170332074165344,
          0.2529371678829193,
          0.08849247545003891,
          -0.19604480266571045,
          -0.3816717267036438,
          0.21642984449863434,
          0.3911445438861847,
          0.27976611256599426,
          -0.048302121460437775,
          -0.7503405809402466,
          0.14605213701725006,
          0.2094416469335556,
          0.3458593487739563,
          0.15694032609462738,
          0.15685823559761047,
          -0.14670591056346893,
          -0.36180901527404785,
          0.04922018572688103,
          0.19416509568691254,
          -0.3089028596878052,
          0.0666307881474495
        ],
        [
          0.04447308927774429,
          -0.8831547498703003,
          0.18781842291355133,
          0.2472022920846939,
          0.22854837775230408,
          0.38235896825790405,
          0.3077024519443512,
          0.05432887375354767,
          0.0982445701956749,
          -0.09865964949131012,
          0.3071938157081604,
          0.1882065385580063,
          1.0337759256362915,
          -0.02421353943645954,
          -0.04424568638205528,
          0.28124070167541504,
          0.22736254334449768,
          0.0729290172457695,
          -0.31380948424339294,
          0.5894479155540466,
          -0.0470392182469368,
          0.6563667058944702,
          -0.020147904753684998,
          0.6023929119110107
        ],
        [
          0.11795229464769363,
          -0.3505221903324127,
          0.7087836265563965,
          -0.514756441116333,
          -0.10325384885072708,
          0.6704877614974976,
          -0.03653606027364731,
          0.7273217439651489,
          0.6156861782073975,
          -0.027657238766551018,
          0.631141185760498,
          -0.4005315601825714,
          0.7422170042991638,
          0.1972767859697342,
          -0.4787084758281708,
          -0.11707764118909836,
          -0.050218068063259125,
          0.24242956936359406,
          0.8549070358276367,
          0.5788865089416504,
          0.8868632912635803,
          0.8394909501075745,
          0.2602789103984833,
          0.1565517783164978
        ],
        [
          -1.3041386604309082,
          1.8281530141830444,
          -1.2749106884002686,
          0.9298163056373596,
          0.8010773658752441,
          -0.7927652597427368,
          0.5725812315940857,
          -0.6903182864189148,
          -0.1875266134738922,
          0.8717510104179382,
          -1.6831011772155762,
          0.4164595901966095,
          -1.6190005540847778,
          -0.7740224599838257,
          1.4470301866531372,
          0.8117362260818481,
          0.7008917331695557,
          -0.7993007898330688,
          -0.7074014544487,
          -0.9413700699806213,
          0.6958240270614624,
          -1.4382716417312622,
          -0.7388184666633606,
          -1.5144050121307373
        ],
        [
          -1.0168547630310059,
          2.3289167881011963,
          -1.8135117292404175,
          0.2993326485157013,
          0.18321570754051208,
          -0.7468931078910828,
          0.45562368631362915,
          -0.6880418658256531,
          0.05877988040447235,
          1.4476858377456665,
          -2.2611379623413086,
          -0.14858047664165497,
          -2.690316677093506,
          -0.7111004590988159,
          1.4451109170913696,
          0.10059653222560883,
          -0.05649486556649208,
          -0.05073540285229683,
          0.410910964012146,
          -0.9206733107566833,
          0.9028614163398743,
          -1.3649402856826782,
          -0.21820352971553802,
          -1.2116297483444214
        ],
        [
          0.3007775545120239,
          -0.8686647415161133,
          0.23641230165958405,
          -0.486537903547287,
          -0.2968701124191284,
          0.5057418346405029,
          -0.24519169330596924,
          0.16500723361968994,
          0.44877609610557556,
          -0.10917109251022339,
          0.2933010756969452,
          -0.17753884196281433,
          0.4677886962890625,
          -0.058029379695653915,
          -0.4594992995262146,
          -0.39386048913002014,
          0.23128117620944977,
          0.12789368629455566,
          0.0776716023683548,
          0.1011294573545456,
          0.02004590630531311,
          0.14028015732765198,
          0.23270107805728912,
          0.10228289663791656
        ],
        [
          0.9361327886581421,
          -1.203330397605896,
          1.4076223373413086,
          -1.2057099342346191,
          -0.9428835511207581,
          1.403968334197998,
          0.032617270946502686,
          0.6255353689193726,
          0.7099558711051941,
          -0.5898422002792358,
          1.284534215927124,
          -0.7207294702529907,
          1.1204895973205566,
          1.0335235595703125,
          -1.0515868663787842,
          -0.98358553647995,
          -0.7605202198028564,
          1.2621196508407593,
          1.3457332849502563,
          1.6151024103164673,
          0.900928795337677,
          1.6211706399917603,
          0.9855693578720093,
          1.56902015209198
        ],
        [
          -0.22685906291007996,
          -0.06670384109020233,
          0.22443513572216034,
          -0.5578089952468872,
          -0.5322021842002869,
          0.7099390625953674,
          0.27814120054244995,
          0.6722896695137024,
          0.44825318455696106,
          -0.032257892191410065,
          0.2002417892217636,
          -0.7114089131355286,
          -0.2844557762145996,
          0.023890193551778793,
          -0.13530857861042023,
          -0.5855509042739868,
          -0.6830182075500488,
          0.8198162317276001,
          1.0399854183197021,
          0.29337358474731445,
          1.4860217571258545,
          -0.11177286505699158,
          0.2830130159854889,
          -0.1009155809879303
        ],
        [
          -0.13069558143615723,
          -0.5013277530670166,
          0.4516843557357788,
          -0.31225430965423584,
          -0.0007527104462496936,
          0.23998048901557922,
          -0.17636731266975403,
          0.21361973881721497,
          -0.11654824018478394,
          0.0017576452810317278,
          0.6227307915687561,
          0.03877817094326019,
          0.5693370699882507,
          -0.14370185136795044,
          0.12920717895030975,
          -0.15847691893577576,
          0.2996516227722168,
          -0.20850558578968048,
          -0.2116389125585556,
          0.5473750829696655,
          -0.06728417426347733,
          0.10266567021608353,
          0.11276760697364807,
          0.2585294842720032
        ],
        [
          -0.6020510196685791,
          0.6127327084541321,
          0.6264121532440186,
          -0.6437088251113892,
          -0.7497597932815552,
          0.36914923787117004,
          0.8462904691696167,
          0.47962984442710876,
          1.0325038433074951,
          -0.39631080627441406,
          -0.13341619074344635,
          -0.4321107864379883,
          -1.0082217454910278,
          0.6291918754577637,
          -0.35219040513038635,
          -0.19275888800621033,
          -0.5919934511184692,
          0.6158849000930786,
          1.1340348720550537,
          0.007844412699341774,
          1.21190345287323,
          0.03342774137854576,
          0.5173525214195251,
          -0.14330673217773438
        ],
        [
          -0.3380122780799866,
          0.45453470945358276,
          -0.29430946707725525,
          -0.032085616141557693,
          0.05701059103012085,
          0.2490411251783371,
          0.7000205516815186,
          0.29088300466537476,
          -0.013696330599486828,
          -0.12847936153411865,
          -0.2702603340148926,
          -0.5805792212486267,
          -0.2931405007839203,
          0.5038585066795349,
          -0.1250225454568863,
          -0.3275430500507355,
          -0.5337833762168884,
          0.34885942935943604,
          0.2123647928237915,
          0.03220916539430618,
          0.37850067019462585,
          -0.5509048104286194,
          0.5423185229301453,
          0.07814709842205048
        ],
        [
          -0.10669668763875961,
          -0.667084813117981,
          0.2591157853603363,
          -0.41376134753227234,
          -0.44132858514785767,
          0.3984382152557373,
          0.21102170646190643,
          0.2967788875102997,
          -0.23607774078845978,
          -0.2542686462402344,
          0.6313609480857849,
          0.06758800148963928,
          0.6926058530807495,
          0.12467383593320847,
          -0.08290552347898483,
          0.21777836978435516,
          0.23798808455467224,
          0.4601775109767914,
          0.5250616073608398,
          0.07861463725566864,
          0.38823598623275757,
          0.29649868607521057,
          0.04542716592550278,
          0.6042103171348572
        ],
        [
          -0.32543686032295227,
          0.509647011756897,
          0.4809208810329437,
          -0.9529151320457458,
          -0.7788995504379272,
          0.84987872838974,
          1.0975818634033203,
          0.6329851746559143,
          0.5989052653312683,
          0.03420652076601982,
          0.08748860657215118,
          -0.5008335709571838,
          -1.3303594589233398,
          0.6147527694702148,
          -0.111222043633461,
          -0.19175779819488525,
          -0.26098594069480896,
          0.8820176720619202,
          1.141514539718628,
          0.09415581822395325,
          1.548569917678833,
          0.2069915533065796,
          0.8050073981285095,
          -0.2809767425060272
        ],
        [
          0.29482337832450867,
          -0.5508811473846436,
          0.629036545753479,
          -0.5574153065681458,
          -0.02644084393978119,
          0.6728555560112,
          -0.03349511697888374,
          0.08601167798042297,
          0.36224594712257385,
          -0.03766798600554466,
          0.7868108153343201,
          -0.6547710299491882,
          0.5665578842163086,
          0.3939783275127411,
          -0.3523063659667969,
          -0.6404663920402527,
          -0.21897725760936737,
          0.5267077088356018,
          0.4487534165382385,
          0.7247636318206787,
          0.5314840078353882,
          0.8344512581825256,
          0.47636228799819946,
          0.6046020984649658
        ],
        [
          0.07845515012741089,
          -0.7529242634773254,
          0.5899949669837952,
          0.09407192468643188,
          -0.08560123294591904,
          -0.040317706763744354,
          0.42999204993247986,
          0.7451290488243103,
          0.2401033639907837,
          -0.4893093407154083,
          0.3681812584400177,
          0.0360121876001358,
          1.2259230613708496,
          0.15075084567070007,
          -0.1545437127351761,
          -0.218239888548851,
          -0.4873577654361725,
          0.48295602202415466,
          0.44141149520874023,
          0.21348154544830322,
          0.5237488150596619,
          0.720595121383667,
          -0.04609958082437515,
          0.4611978232860565
        ]
      ],
      "bias": [
        -0.023268762975931168,
        0.03221246227622032,
        0.08807852864265442,
        0.014951633289456367,
        0.03521042689681053,
        0.13728632032871246,
        -0.02880151756107807,
        -0.19077961146831512,
        -0.06747111678123474,
        -0.05214746668934822,
        0.02329297736287117,
        0.04112433269619942,
        0.31158292293548584,
        0.14454182982444763,
        -0.05217393487691879,
        -0.2612908184528351,
        -0.03443620726466179,
        0.03479587659239769,
        0.01102938037365675,
        -0.013075287453830242,
        0.022799991071224213,
        0.010076042264699936,
        -0.09213768690824509,
        0.01051298063248396
      ]
    },
    {
      "name": "linear_2",
      "in_features": 24,
      "out_features": 1,
      "weight_layout": "out_features x in_features",
      "weights": [
        [
          -0.7192374467849731,
          0.5109593868255615,
          0.8773983120918274,
          0.5976628065109253,
          -0.42957186698913574,
          0.7731589674949646,
          -0.733291745185852,
          -0.656274139881134,
          -0.13258403539657593,
          -0.611319899559021,
          0.7867537140846252,
          0.8345015645027161,
          1.3774840831756592,
          1.3285250663757324,
          -0.24836255609989166,
          -0.8605927228927612,
          -0.8390843272209167,
          0.6348561644554138,
          0.7075172066688538,
          0.3472016155719757,
          0.536527693271637,
          0.6925891041755676,
          -0.47835734486579895,
          0.3720979392528534
        ]
      ],
      "bias": [
        0.08790218085050583
      ]
    }
  ],
  "metrics": {
    "config_path": "C:\\Users\\giova\\OneDrive\\Desktop\\KAN - ACA\\KAN-ACA-Project\\src\\kan_models\\models\\sine_1d_mlp\\params.toml",
    "device": "cpu",
    "train_mse": 0.0004817095759790391,
    "validation_mse": 0.0005343711236491799,
    "test_mse": 0.00045043558930046856,
    "train_mae": 0.017214246094226837,
    "validation_mae": 0.01868106611073017,
    "test_mae": 0.017604827880859375,
    "accuracy_tolerance": 0.02,
    "train_accuracy_tol": 0.68359375,
    "validation_accuracy_tol": 0.63671875,
    "test_accuracy_tol": 0.6484375,
    "train_r2": 0.9991685748100281,
    "validation_r2": 0.9990772008895874,
    "test_r2": 0.9992416501045227,
    "best_step": 3999,
    "trained_steps": 4000,
    "best_validation_mse": 0.0005343711236491799,
    "stopped_early": false,
    "stop_reason": "max_steps"
  }
}
