#ifndef MLP_MODEL_H
#define MLP_MODEL_H

/*
 * Auto-generated by scripts/json_to_mlp_header.py.
 * Source JSON: /home/alessandro/Projects/gem5-ACA/ACA---KAN/model/mlp/mlp_export.json
 * Do not edit this file by hand; regenerate it after changing the JSON export.
 *
 * MLP_WEIGHTS is flattened row-major as W[layer][out_neuron][in_neuron].
 * For each layer, advance by output_dim * input_dim weights.
 */

#define MLP_ACT_IDENTITY 0
#define MLP_ACT_TANH 1
#define MLP_ACT_RELU 2
#define MLP_ACT_SIGMOID 3

#define MLP_INPUT_DIM 1
#define MLP_OUTPUT_DIM 1
#define MLP_NUM_LAYERS 3
#define MLP_MAX_LAYER_WIDTH 24
#define MLP_TOTAL_WEIGHTS 624
#define MLP_TOTAL_BIASES 49

static const int MLP_LAYER_SIZES[MLP_NUM_LAYERS + 1] = {
    1, 24, 24, 1
};

static const int MLP_LAYER_ACTIVATIONS[MLP_NUM_LAYERS] = {
    1, 1, 0
};

static const float MLP_WEIGHTS[MLP_TOTAL_WEIGHTS] = {
    0.187374249f, -1.07689297f, 1.04280698f, -0.788406551f, -0.763633013f, 0.949953377f,
    0.538101733f, 1.02404082f, 1.44038665f, -0.507979453f, 1.0316664f, -0.779221237f,
    1.60975266f, 0.536111474f, -0.399725646f, -0.758163095f, -0.857085347f, 0.943188429f,
    1.99806869f, 1.3164984f, 2.9457202f, 1.24407792f, 0.827067733f, 1.29520404f,
    -0.220323265f, 0.466862082f, 0.0148449261f, 0.119138524f, 0.00976564176f, -0.244410276f,
    -0.208526134f, -0.242171079f, 0.0499311537f, 0.430620074f, -0.400521368f, -0.26647231f,
    -1.11085963f, 0.088506043f, 0.275696516f, -0.156696096f, -0.127391592f, 0.242148712f,
    -0.313269377f, 0.0351742506f, 0.0607776307f, -0.408603072f, 0.28971526f, -0.489870965f,
    0.399167001f, -0.247918263f, 0.586850464f, -0.0623863004f, -0.102701135f, 0.529661298f,
    0.201980352f, -0.0980142504f, 0.0333056189f, -0.185372978f, 0.71116811f, -0.319947809f,
    1.00407851f, 0.32453981f, -0.200927421f, -0.462630957f, 0.175821096f, 0.0648224652f,
    0.438294083f, 0.194280073f, 0.293110639f, 0.64043802f, 0.310055614f, 0.235588253f,
    -0.329560101f, 0.236184552f, -0.234528497f, 0.895046651f, 1.40596545f, -1.22711229f,
    -1.14452112f, -1.44874692f, -1.58599937f, 0.521111786f, -0.415796787f, 1.18716395f,
    -1.03203321f, -0.952320576f, 0.00483568851f, 1.56034732f, 0.561466694f, -1.39845908f,
    -1.08628047f, -1.31261587f, -2.06835341f, -1.5445267f, -1.49428439f, -0.909231782f,
    0.0147412159f, -0.63937825f, 0.321607083f, -0.309318691f, 0.317443162f, -0.0704881549f,
    0.138940379f, -0.0482432283f, 0.173927441f, -0.320545763f, 0.266747445f, -0.167341352f,
    1.17568028f, -0.29332757f, 0.0491722003f, -0.018731812f, -0.22672537f, -0.0977004394f,
    -0.125506461f, 0.105171517f, -0.337966114f, 0.198420703f, 0.0678406358f, 0.500989377f,
    -0.805537403f, 2.38774085f, -1.5269593f, 0.870467663f, 0.448517472f, -0.716855884f,
    0.445658326f, -0.367497504f, 0.313584328f, 0.546419978f, -1.71301818f, -0.110585921f,
    -2.75693655f, -0.541022062f, 0.711367249f, 0.0335144773f, 0.538576245f, -0.166628525f,
    -0.238658473f, -1.06566024f, 0.903426766f, -1.39786363f, -0.726753175f, -1.55536973f,
    -0.114205003f, 0.587913871f, -0.429158121f, 0.751022935f, 0.648361981f, -0.57329452f,
    0.0951615274f, -0.5919891f, -0.460663885f, 0.564958215f, -0.890712678f, 0.804147363f,
    -0.968123972f, -0.605948091f, 0.687489867f, 0.683730781f, 0.14318423f, -0.316963851f,
    -0.544659019f, -0.922618032f, -0.639458358f, -0.658418596f, -0.822815001f, -0.681370497f,
    -0.000225907163f, 0.58062911f, 0.142985865f, -0.0879971981f, 0.228380367f, -0.00387160294f,
    -0.0159128495f, -0.33314538f, 0.0877838731f, 0.410892516f, -0.52837342f, 0.0228891112f,
    -0.47123009f, -0.059850283f, 0.358960658f, 0.00423399592f, -0.160318568f, -0.345975548f,
    -0.262126088f, -0.248885691f, 0.243878096f, -0.198018238f, -0.0427380763f, 0.0432106592f,
    1.03612304f, -0.59805119f, -1.94492817f, 1.72490227f, 0.894990742f, -1.12013435f,
    -1.21761525f, -1.36695921f, -1.90589297f, 0.895085871f, -0.743083835f, 1.53115964f,
    -0.29309386f, -1.22405064f, 0.0539085194f, 1.02904654f, 0.980003595f, -1.53343666f,
    -1.81086957f, -0.898648143f, -2.53676367f, -0.932118952f, -1.55437648f, -0.0994141027f,
    0.118225999f, -0.383618653f, 0.103205487f, -0.174765289f, -0.450381994f, 0.455909312f,
    -0.231521338f, 0.211349726f, 0.297475845f, -0.0897291973f, 0.130591884f, 0.222724795f,
    0.63526696f, 0.0341250487f, -0.222604215f, -0.304654777f, 0.174986079f, -0.0842166096f,
    0.244920909f, 0.291050851f, 0.360299468f, 0.188316077f, 0.290598869f, 0.0255950168f,
    -0.0573923327f, -0.0659030229f, -0.353702664f, -0.221703321f, 0.252937168f, 0.0884924755f,
    -0.196044803f, -0.381671727f, 0.216429844f, 0.391144544f, 0.279766113f, -0.0483021215f,
    -0.750340581f, 0.146052137f, 0.209441647f, 0.345859349f, 0.156940326f, 0.156858236f,
    -0.146705911f, -0.361809015f, 0.0492201857f, 0.194165096f, -0.30890286f, 0.0666307881f,
    0.0444730893f, -0.88315475f, 0.187818423f, 0.247202292f, 0.228548378f, 0.382358968f,
    0.307702452f, 0.0543288738f, 0.0982445702f, -0.0986596495f, 0.307193816f, 0.188206539f,
    1.03377593f, -0.0242135394f, -0.0442456864f, 0.281240702f, 0.227362543f, 0.0729290172f,
    -0.313809484f, 0.589447916f, -0.0470392182f, 0.656366706f, -0.0201479048f, 0.602392912f,
    0.117952295f, -0.35052219f, 0.708783627f, -0.514756441f, -0.103253849f, 0.670487761f,
    -0.0365360603f, 0.727321744f, 0.615686178f, -0.0276572388f, 0.631141186f, -0.40053156f,
    0.742217004f, 0.197276786f, -0.478708476f, -0.117077641f, -0.0502180681f, 0.242429569f,
    0.854907036f, 0.578886509f, 0.886863291f, 0.83949095f, 0.26027891f, 0.156551778f,
    -1.30413866f, 1.82815301f, -1.27491069f, 0.929816306f, 0.801077366f, -0.79276526f,
    0.572581232f, -0.690318286f, -0.187526613f, 0.87175101f, -1.68310118f, 0.41645959f,
    -1.61900055f, -0.77402246f, 1.44703019f, 0.811736226f, 0.700891733f, -0.79930079f,
    -0.707401454f, -0.94137007f, 0.695824027f, -1.43827164f, -0.738818467f, -1.51440501f,
    -1.01685476f, 2.32891679f, -1.81351173f, 0.299332649f, 0.183215708f, -0.746893108f,
    0.455623686f, -0.688041866f, 0.0587798804f, 1.44768584f, -2.26113796f, -0.148580477f,
    -2.69031668f, -0.711100459f, 1.44511092f, 0.100596532f, -0.0564948656f, -0.0507354029f,
    0.410910964f, -0.920673311f, 0.902861416f, -1.36494029f, -0.21820353f, -1.21162975f,
    0.300777555f, -0.868664742f, 0.236412302f, -0.486537904f, -0.296870112f, 0.505741835f,
    -0.245191693f, 0.165007234f, 0.448776096f, -0.109171093f, 0.293301076f, -0.177538842f,
    0.467788696f, -0.0580293797f, -0.4594993f, -0.393860489f, 0.231281176f, 0.127893686f,
    0.0776716024f, 0.101129457f, 0.0200459063f, 0.140280157f, 0.232701078f, 0.102282897f,
    0.936132789f, -1.2033304f, 1.40762234f, -1.20570993f, -0.942883551f, 1.40396833f,
    0.0326172709f, 0.625535369f, 0.709955871f, -0.5898422f, 1.28453422f, -0.72072947f,
    1.1204896f, 1.03352356f, -1.05158687f, -0.983585536f, -0.76052022f, 1.26211965f,
    1.34573328f, 1.61510241f, 0.900928795f, 1.62117064f, 0.985569358f, 1.56902015f,
    -0.226859063f, -0.0667038411f, 0.224435136f, -0.557808995f, -0.532202184f, 0.709939063f,
    0.278141201f, 0.67228967f, 0.448253185f, -0.0322578922f, 0.200241789f, -0.711408913f,
    -0.284455776f, 0.0238901936f, -0.135308579f, -0.585550904f, -0.683018208f, 0.819816232f,
    1.03998542f, 0.293373585f, 1.48602176f, -0.111772865f, 0.283013016f, -0.100915581f,
    -0.130695581f, -0.501327753f, 0.451684356f, -0.31225431f, -0.000752710446f, 0.239980489f,
    -0.176367313f, 0.213619739f, -0.11654824f, 0.00175764528f, 0.622730792f, 0.0387781709f,
    0.56933707f, -0.143701851f, 0.129207179f, -0.158476919f, 0.299651623f, -0.208505586f,
    -0.211638913f, 0.547375083f, -0.0672841743f, 0.10266567f, 0.112767607f, 0.258529484f,
    -0.60205102f, 0.612732708f, 0.626412153f, -0.643708825f, -0.749759793f, 0.369149238f,
    0.846290469f, 0.479629844f, 1.03250384f, -0.396310806f, -0.133416191f, -0.432110786f,
    -1.00822175f, 0.629191875f, -0.352190405f, -0.192758888f, -0.591993451f, 0.6158849f,
    1.13403487f, 0.0078444127f, 1.21190345f, 0.0334277414f, 0.517352521f, -0.143306732f,
    -0.338012278f, 0.454534709f, -0.294309467f, -0.0320856161f, 0.057010591f, 0.249041125f,
    0.700020552f, 0.290883005f, -0.0136963306f, -0.128479362f, -0.270260334f, -0.580579221f,
    -0.293140501f, 0.503858507f, -0.125022545f, -0.32754305f, -0.533783376f, 0.348859429f,
    0.212364793f, 0.0322091654f, 0.37850067f, -0.55090481f, 0.542318523f, 0.0781470984f,
    -0.106696688f, -0.667084813f, 0.259115785f, -0.413761348f, -0.441328585f, 0.398438215f,
    0.211021706f, 0.296778888f, -0.236077741f, -0.254268646f, 0.631360948f, 0.0675880015f,
    0.692605853f, 0.124673836f, -0.0829055235f, 0.21777837f, 0.237988085f, 0.460177511f,
    0.525061607f, 0.0786146373f, 0.388235986f, 0.296498686f, 0.0454271659f, 0.604210317f,
    -0.32543686f, 0.509647012f, 0.480920881f, -0.952915132f, -0.77889955f, 0.849878728f,
    1.09758186f, 0.632985175f, 0.598905265f, 0.0342065208f, 0.0874886066f, -0.500833571f,
    -1.33035946f, 0.614752769f, -0.111222044f, -0.191757798f, -0.260985941f, 0.882017672f,
    1.14151454f, 0.0941558182f, 1.54856992f, 0.206991553f, 0.805007398f, -0.280976743f,
    0.294823378f, -0.550881147f, 0.629036546f, -0.557415307f, -0.0264408439f, 0.672855556f,
    -0.033495117f, 0.086011678f, 0.362245947f, -0.037667986f, 0.786810815f, -0.65477103f,
    0.566557884f, 0.393978328f, -0.352306366f, -0.640466392f, -0.218977258f, 0.526707709f,
    0.448753417f, 0.724763632f, 0.531484008f, 0.834451258f, 0.476362288f, 0.604602098f,
    0.0784551501f, -0.752924263f, 0.589994967f, 0.0940719247f, -0.0856012329f, -0.0403177068f,
    0.42999205f, 0.745129049f, 0.240103364f, -0.489309341f, 0.368181258f, 0.0360121876f,
    1.22592306f, 0.150750846f, -0.154543713f, -0.218239889f, -0.487357765f, 0.482956022f,
    0.441411495f, 0.213481545f, 0.523748815f, 0.720595121f, -0.0460995808f, 0.461197823f,
    -0.719237447f, 0.510959387f, 0.877398312f, 0.597662807f, -0.429571867f, 0.773158967f,
    -0.733291745f, -0.65627414f, -0.132584035f, -0.6113199f, 0.786753714f, 0.834501565f,
    1.37748408f, 1.32852507f, -0.248362556f, -0.860592723f, -0.839084327f, 0.634856164f,
    0.707517207f, 0.347201616f, 0.536527693f, 0.692589104f, -0.478357345f, 0.372097939f
};

static const float MLP_BIASES[MLP_TOTAL_BIASES] = {
    -0.389141738f, 1.02178621f, -0.592876434f, 0.192098841f, 0.175461948f, -0.305799782f,
    0.150282294f, -0.286005288f, -0.0984636694f, 0.333234966f, -0.807683349f, 0.0752336159f,
    -1.61312568f, -0.167221248f, 0.280296773f, 0.163796872f, 0.132121578f, -0.158570886f,
    -0.171664089f, -0.997094691f, -0.012010023f, -1.01617146f, -0.194619328f, -1.17301297f,
    -0.023268763f, 0.0322124623f, 0.0880785286f, 0.0149516333f, 0.0352104269f, 0.13728632f,
    -0.0288015176f, -0.190779611f, -0.0674711168f, -0.0521474667f, 0.0232929774f, 0.0411243327f,
    0.311582923f, 0.14454183f, -0.0521739349f, -0.261290818f, -0.0344362073f, 0.0347958766f,
    0.0110293804f, -0.0130752875f, 0.0227999911f, 0.0100760423f, -0.0921376869f, 0.0105129806f,
    0.0879021809f
};

#endif /* MLP_MODEL_H */
